<?xml version="1.0"?>
<opencv_storage>
<stage10>
  <maxWeakCount>10</maxWeakCount>
  <stageThreshold>-5.1690256595611572e-01</stageThreshold>
  <weakClassifiers>
    <_>
      <internalNodes>
        0 -1 9590 5.2144095301628113e-02</internalNodes>
      <leafValues>
        -1.2840466201305389e-01 7.6744186878204346e-01</leafValues></_>
    <_>
      <internalNodes>
        0 -1 10777 -4.4310465455055237e-02</internalNodes>
      <leafValues>
        1. -6.5412320196628571e-02</leafValues></_>
    <_>
      <internalNodes>
        0 -1 87626 1.3560120016336441e-02</internalNodes>
      <leafValues>
        -1.5377239882946014e-01 7.1302127838134766e-01</leafValues></_>
    <_>
      <internalNodes>
        0 -1 118210 7.2778114117681980e-03</internalNodes>
      <leafValues>
        1.4764538407325745e-01 -8.0208545923233032e-01</leafValues></_>
    <_>
      <internalNodes>
        0 -1 147340 -2.1584536880254745e-02</internalNodes>
      <leafValues>
        8.0630511045455933e-01 -7.3952116072177887e-02</leafValues></_>
    <_>
      <internalNodes>
        0 -1 140239 -2.8609409928321838e-03</internalNodes>
      <leafValues>
        3.2506901025772095e-01 -3.3170333504676819e-01</leafValues></_>
    <_>
      <internalNodes>
        0 -1 151966 8.8176573626697063e-05</internalNodes>
      <leafValues>
        -2.8836655616760254e-01 3.2584416866302490e-01</leafValues></_>
    <_>
      <internalNodes>
        0 -1 90016 -2.8913109563291073e-03</internalNodes>
      <leafValues>
        4.1095656156539917e-01 -2.5899890065193176e-01</leafValues></_>
    <_>
      <internalNodes>
        0 -1 74518 -3.0193415004760027e-03</internalNodes>
      <leafValues>
        6.2124717235565186e-01 -1.6512615978717804e-01</leafValues></_>
    <_>
      <internalNodes>
        0 -1 27195 -3.9256289601325989e-02</internalNodes>
      <leafValues>
        -6.9391131401062012e-01 1.8697778880596161e-01</leafValues></_></weakClassifiers></stage10>
</opencv_storage>
