<?xml version="1.0"?>
<opencv_storage>
<stage12>
  <maxWeakCount>13</maxWeakCount>
  <stageThreshold>-6.2592560052871704e-01</stageThreshold>
  <weakClassifiers>
    <_>
      <internalNodes>
        0 -1 108821 9.2069700360298157e-02</internalNodes>
      <leafValues>
        -1.2307692319154739e-01 8.0000001192092896e-01</leafValues></_>
    <_>
      <internalNodes>
        0 -1 12807 1.0195537470281124e-03</internalNodes>
      <leafValues>
        1.5980713069438934e-01 -7.0330637693405151e-01</leafValues></_>
    <_>
      <internalNodes>
        0 -1 113156 -3.1145145185291767e-03</internalNodes>
      <leafValues>
        3.4048005938529968e-01 -3.2357272505760193e-01</leafValues></_>
    <_>
      <internalNodes>
        0 -1 23345 1.2613603845238686e-02</internalNodes>
      <leafValues>
        -1.6829246282577515e-01 4.6406903862953186e-01</leafValues></_>
    <_>
      <internalNodes>
        0 -1 49570 6.4956216374412179e-04</internalNodes>
      <leafValues>
        1.7965976893901825e-01 -4.9800667166709900e-01</leafValues></_>
    <_>
      <internalNodes>
        0 -1 128042 -1.0019229957833886e-03</internalNodes>
      <leafValues>
        -8.1899118423461914e-01 1.7116120457649231e-01</leafValues></_>
    <_>
      <internalNodes>
        0 -1 24858 -4.8849876970052719e-02</internalNodes>
      <leafValues>
        5.2395057678222656e-01 -2.4063737690448761e-01</leafValues></_>
    <_>
      <internalNodes>
        0 -1 102385 -2.9707457870244980e-03</internalNodes>
      <leafValues>
        7.2363489866256714e-01 -8.3744049072265625e-02</leafValues></_>
    <_>
      <internalNodes>
        0 -1 29528 -4.4940672523807734e-05</internalNodes>
      <leafValues>
        3.6476209759712219e-01 -2.9670992493629456e-01</leafValues></_>
    <_>
      <internalNodes>
        0 -1 118683 -6.8177207140251994e-05</internalNodes>
      <leafValues>
        3.5606786608695984e-01 -2.9473057389259338e-01</leafValues></_>
    <_>
      <internalNodes>
        0 -1 141799 5.9265494346618652e-03</internalNodes>
      <leafValues>
        -2.2659976780414581e-01 5.0661170482635498e-01</leafValues></_>
    <_>
      <internalNodes>
        0 -1 73084 -2.9592853970825672e-03</internalNodes>
      <leafValues>
        7.1595108509063721e-01 -1.7443947494029999e-01</leafValues></_>
    <_>
      <internalNodes>
        0 -1 130157 -6.0052997432649136e-03</internalNodes>
      <leafValues>
        -3.1471127271652222e-01 3.6194878816604614e-01</leafValues></_></weakClassifiers></stage12>
</opencv_storage>
